digraph Tree {
node [shape=box, style="filled", color="black"] ;
0 [label="Sex_male <= 0.5\ngini = 0.473\nsamples = 891\nvalue = [549, 342]\nclass = 0", fillcolor="#f5cfb4"] ;
1 [label="Pclass_3 <= 0.5\ngini = 0.383\nsamples = 314\nvalue = [81, 233]\nclass = 1", fillcolor="#7ebfee"] ;
0 -> 1 [labeldistance=2.5, labelangle=45, headlabel="True"] ;
2 [label="Fare <= 28.856\ngini = 0.1\nsamples = 170\nvalue = [9, 161]\nclass = 1", fillcolor="#44a2e6"] ;
1 -> 2 ;
3 [label="Age <= 37.0\ngini = 0.18\nsamples = 70\nvalue = [7, 63]\nclass = 1", fillcolor="#4fa8e8"] ;
2 -> 3 ;
4 [label="Age <= 27.5\ngini = 0.113\nsamples = 50\nvalue = [3, 47]\nclass = 1", fillcolor="#46a3e7"] ;
3 -> 4 ;
5 [label="Age <= 23.5\ngini = 0.198\nsamples = 27\nvalue = [3, 24]\nclass = 1", fillcolor="#52a9e8"] ;
4 -> 5 ;
6 [label="gini = 0.0\nsamples = 15\nvalue = [0, 15]\nclass = 1", fillcolor="#399de5"] ;
5 -> 6 ;
7 [label="gini = 0.375\nsamples = 12\nvalue = [3, 9]\nclass = 1", fillcolor="#7bbeee"] ;
5 -> 7 ;
8 [label="gini = 0.0\nsamples = 23\nvalue = [0, 23]\nclass = 1", fillcolor="#399de5"] ;
4 -> 8 ;
9 [label="Fare <= 14.625\ngini = 0.32\nsamples = 20\nvalue = [4, 16]\nclass = 1", fillcolor="#6ab6ec"] ;
3 -> 9 ;
10 [label="gini = 0.408\nsamples = 7\nvalue = [2, 5]\nclass = 1", fillcolor="#88c4ef"] ;
9 -> 10 ;
11 [label="gini = 0.26\nsamples = 13\nvalue = [2, 11]\nclass = 1", fillcolor="#5dafea"] ;
9 -> 11 ;
12 [label="Parch <= 1.5\ngini = 0.039\nsamples = 100\nvalue = [2, 98]\nclass = 1", fillcolor="#3d9fe6"] ;
2 -> 12 ;
13 [label="gini = 0.0\nsamples = 84\nvalue = [0, 84]\nclass = 1", fillcolor="#399de5"] ;
12 -> 13 ;
14 [label="Fare <= 135.775\ngini = 0.219\nsamples = 16\nvalue = [2, 14]\nclass = 1", fillcolor="#55abe9"] ;
12 -> 14 ;
15 [label="gini = 0.0\nsamples = 9\nvalue = [0, 9]\nclass = 1", fillcolor="#399de5"] ;
14 -> 15 ;
16 [label="gini = 0.408\nsamples = 7\nvalue = [2, 5]\nclass = 1", fillcolor="#88c4ef"] ;
14 -> 16 ;
17 [label="Fare <= 23.35\ngini = 0.5\nsamples = 144\nvalue = [72, 72]\nclass = 0", fillcolor="#ffffff"] ;
1 -> 17 ;
18 [label="Age <= 38.0\ngini = 0.484\nsamples = 117\nvalue = [48, 69]\nclass = 1", fillcolor="#c3e1f7"] ;
17 -> 18 ;
19 [label="Embarked_S <= 0.5\ngini = 0.471\nsamples = 108\nvalue = [41, 67]\nclass = 1", fillcolor="#b2d9f5"] ;
18 -> 19 ;
20 [label="Fare <= 15.621\ngini = 0.393\nsamples = 52\nvalue = [14, 38]\nclass = 1", fillcolor="#82c1ef"] ;
19 -> 20 ;
21 [label="Parch <= 0.5\ngini = 0.434\nsamples = 44\nvalue = [14, 30]\nclass = 1", fillcolor="#95cbf1"] ;
20 -> 21 ;
22 [label="Age <= 30.75\ngini = 0.368\nsamples = 37\nvalue = [9, 28]\nclass = 1", fillcolor="#79bced"] ;
21 -> 22 ;
23 [label="Fare <= 8.083\ngini = 0.42\nsamples = 30\nvalue = [9, 21]\nclass = 1", fillcolor="#8ec7f0"] ;
22 -> 23 ;
24 [label="gini = 0.363\nsamples = 21\nvalue = [5, 16]\nclass = 1", fillcolor="#77bced"] ;
23 -> 24 ;
25 [label="gini = 0.494\nsamples = 9\nvalue = [4, 5]\nclass = 1", fillcolor="#d7ebfa"] ;
23 -> 25 ;
26 [label="gini = 0.0\nsamples = 7\nvalue = [0, 7]\nclass = 1", fillcolor="#399de5"] ;
22 -> 26 ;
27 [label="gini = 0.408\nsamples = 7\nvalue = [5, 2]\nclass = 0", fillcolor="#efb388"] ;
21 -> 27 ;
28 [label="gini = 0.0\nsamples = 8\nvalue = [0, 8]\nclass = 1", fillcolor="#399de5"] ;
20 -> 28 ;
29 [label="Fare <= 10.825\ngini = 0.499\nsamples = 56\nvalue = [27, 29]\nclass = 1", fillcolor="#f1f8fd"] ;
19 -> 29 ;
30 [label="Fare <= 7.988\ngini = 0.489\nsamples = 33\nvalue = [19, 14]\nclass = 0", fillcolor="#f8decb"] ;
29 -> 30 ;
31 [label="Age <= 22.5\ngini = 0.488\nsamples = 19\nvalue = [8, 11]\nclass = 1", fillcolor="#c9e4f8"] ;
30 -> 31 ;
32 [label="gini = 0.42\nsamples = 10\nvalue = [3, 7]\nclass = 1", fillcolor="#8ec7f0"] ;
31 -> 32 ;
33 [label="gini = 0.494\nsamples = 9\nvalue = [5, 4]\nclass = 0", fillcolor="#fae6d7"] ;
31 -> 33 ;
34 [label="Fare <= 9.706\ngini = 0.337\nsamples = 14\nvalue = [11, 3]\nclass = 0", fillcolor="#eca36f"] ;
30 -> 34 ;
35 [label="gini = 0.408\nsamples = 7\nvalue = [5, 2]\nclass = 0", fillcolor="#efb388"] ;
34 -> 35 ;
36 [label="gini = 0.245\nsamples = 7\nvalue = [6, 1]\nclass = 0", fillcolor="#e9965a"] ;
34 -> 36 ;
37 [label="Fare <= 17.6\ngini = 0.454\nsamples = 23\nvalue = [8, 15]\nclass = 1", fillcolor="#a3d1f3"] ;
29 -> 37 ;
38 [label="Fare <= 15.125\ngini = 0.245\nsamples = 14\nvalue = [2, 12]\nclass = 1", fillcolor="#5aade9"] ;
37 -> 38 ;
39 [label="gini = 0.245\nsamples = 7\nvalue = [1, 6]\nclass = 1", fillcolor="#5aade9"] ;
38 -> 39 ;
40 [label="gini = 0.245\nsamples = 7\nvalue = [1, 6]\nclass = 1", fillcolor="#5aade9"] ;
38 -> 40 ;
41 [label="gini = 0.444\nsamples = 9\nvalue = [6, 3]\nclass = 0", fillcolor="#f2c09c"] ;
37 -> 41 ;
42 [label="gini = 0.346\nsamples = 9\nvalue = [7, 2]\nclass = 0", fillcolor="#eca572"] ;
18 -> 42 ;
43 [label="Fare <= 32.881\ngini = 0.198\nsamples = 27\nvalue = [24, 3]\nclass = 0", fillcolor="#e89152"] ;
17 -> 43 ;
44 [label="Age <= 32.0\ngini = 0.278\nsamples = 18\nvalue = [15, 3]\nclass = 0", fillcolor="#ea9a61"] ;
43 -> 44 ;
45 [label="gini = 0.165\nsamples = 11\nvalue = [10, 1]\nclass = 0", fillcolor="#e88e4d"] ;
44 -> 45 ;
46 [label="gini = 0.408\nsamples = 7\nvalue = [5, 2]\nclass = 0", fillcolor="#efb388"] ;
44 -> 46 ;
47 [label="gini = 0.0\nsamples = 9\nvalue = [9, 0]\nclass = 0", fillcolor="#e58139"] ;
43 -> 47 ;
48 [label="Age <= 6.5\ngini = 0.306\nsamples = 577\nvalue = [468, 109]\nclass = 0", fillcolor="#eb9e67"] ;
0 -> 48 [labeldistance=2.5, labelangle=-45, headlabel="False"] ;
49 [label="SibSp <= 2.5\ngini = 0.444\nsamples = 24\nvalue = [8, 16]\nclass = 1", fillcolor="#9ccef2"] ;
48 -> 49 ;
50 [label="gini = 0.0\nsamples = 15\nvalue = [0, 15]\nclass = 1", fillcolor="#399de5"] ;
49 -> 50 ;
51 [label="gini = 0.198\nsamples = 9\nvalue = [8, 1]\nclass = 0", fillcolor="#e89152"] ;
49 -> 51 ;
52 [label="Fare <= 26.269\ngini = 0.28\nsamples = 553\nvalue = [460, 93]\nclass = 0", fillcolor="#ea9a61"] ;
48 -> 52 ;
53 [label="Age <= 15.5\ngini = 0.194\nsamples = 404\nvalue = [360, 44]\nclass = 0", fillcolor="#e89051"] ;
52 -> 53 ;
54 [label="gini = 0.469\nsamples = 8\nvalue = [5, 3]\nclass = 0", fillcolor="#f5cdb0"] ;
53 -> 54 ;
55 [label="Age <= 32.5\ngini = 0.186\nsamples = 396\nvalue = [355, 41]\nclass = 0", fillcolor="#e89050"] ;
53 -> 55 ;
56 [label="Age <= 30.75\ngini = 0.226\nsamples = 246\nvalue = [214, 32]\nclass = 0", fillcolor="#e99457"] ;
55 -> 56 ;
57 [label="Embarked_S <= 0.5\ngini = 0.205\nsamples = 224\nvalue = [198, 26]\nclass = 0", fillcolor="#e89253"] ;
56 -> 57 ;
58 [label="Fare <= 7.862\ngini = 0.32\nsamples = 45\nvalue = [36, 9]\nclass = 0", fillcolor="#eca06a"] ;
57 -> 58 ;
59 [label="Age <= 22.75\ngini = 0.18\nsamples = 30\nvalue = [27, 3]\nclass = 0", fillcolor="#e88f4f"] ;
58 -> 59 ;
60 [label="gini = 0.26\nsamples = 13\nvalue = [11, 2]\nclass = 0", fillcolor="#ea985d"] ;
59 -> 60 ;
61 [label="gini = 0.111\nsamples = 17\nvalue = [16, 1]\nclass = 0", fillcolor="#e78945"] ;
59 -> 61 ;
62 [label="Fare <= 15.148\ngini = 0.48\nsamples = 15\nvalue = [9, 6]\nclass = 0", fillcolor="#f6d5bd"] ;
58 -> 62 ;
63 [label="gini = 0.408\nsamples = 7\nvalue = [5, 2]\nclass = 0", fillcolor="#efb388"] ;
62 -> 63 ;
64 [label="gini = 0.5\nsamples = 8\nvalue = [4, 4]\nclass = 0", fillcolor="#ffffff"] ;
62 -> 64 ;
65 [label="Fare <= 11.0\ngini = 0.172\nsamples = 179\nvalue = [162, 17]\nclass = 0", fillcolor="#e88e4e"] ;
57 -> 65 ;
66 [label="Age <= 26.5\ngini = 0.208\nsamples = 136\nvalue = [120, 16]\nclass = 0", fillcolor="#e89253"] ;
65 -> 66 ;
67 [label="gini = 0.172\nsamples = 105\nvalue = [95, 10]\nclass = 0", fillcolor="#e88e4e"] ;
66 -> 67 ;
68 [label="gini = 0.312\nsamples = 31\nvalue = [25, 6]\nclass = 0", fillcolor="#eb9f69"] ;
66 -> 68 ;
69 [label="Age <= 23.5\ngini = 0.045\nsamples = 43\nvalue = [42, 1]\nclass = 0", fillcolor="#e6843e"] ;
65 -> 69 ;
70 [label="gini = 0.105\nsamples = 18\nvalue = [17, 1]\nclass = 0", fillcolor="#e78845"] ;
69 -> 70 ;
71 [label="gini = 0.0\nsamples = 25\nvalue = [25, 0]\nclass = 0", fillcolor="#e58139"] ;
69 -> 71 ;
72 [label="Fare <= 7.91\ngini = 0.397\nsamples = 22\nvalue = [16, 6]\nclass = 0", fillcolor="#efb083"] ;
56 -> 72 ;
73 [label="gini = 0.219\nsamples = 8\nvalue = [7, 1]\nclass = 0", fillcolor="#e99355"] ;
72 -> 73 ;
74 [label="Fare <= 8.979\ngini = 0.459\nsamples = 14\nvalue = [9, 5]\nclass = 0", fillcolor="#f3c7a7"] ;
72 -> 74 ;
75 [label="gini = 0.49\nsamples = 7\nvalue = [4, 3]\nclass = 0", fillcolor="#f8e0ce"] ;
74 -> 75 ;
76 [label="gini = 0.408\nsamples = 7\nvalue = [5, 2]\nclass = 0", fillcolor="#efb388"] ;
74 -> 76 ;
77 [label="Fare <= 7.227\ngini = 0.113\nsamples = 150\nvalue = [141, 9]\nclass = 0", fillcolor="#e78946"] ;
55 -> 77 ;
78 [label="gini = 0.0\nsamples = 23\nvalue = [23, 0]\nclass = 0", fillcolor="#e58139"] ;
77 -> 78 ;
79 [label="Fare <= 23.35\ngini = 0.132\nsamples = 127\nvalue = [118, 9]\nclass = 0", fillcolor="#e78b48"] ;
77 -> 79 ;
80 [label="Age <= 33.5\ngini = 0.152\nsamples = 109\nvalue = [100, 9]\nclass = 0", fillcolor="#e78c4b"] ;
79 -> 80 ;
81 [label="gini = 0.0\nsamples = 10\nvalue = [10, 0]\nclass = 0", fillcolor="#e58139"] ;
80 -> 81 ;
82 [label="Embarked_S <= 0.5\ngini = 0.165\nsamples = 99\nvalue = [90, 9]\nclass = 0", fillcolor="#e88e4d"] ;
80 -> 82 ;
83 [label="gini = 0.255\nsamples = 20\nvalue = [17, 3]\nclass = 0", fillcolor="#ea975c"] ;
82 -> 83 ;
84 [label="gini = 0.14\nsamples = 79\nvalue = [73, 6]\nclass = 0", fillcolor="#e78b49"] ;
82 -> 84 ;
85 [label="gini = 0.0\nsamples = 18\nvalue = [18, 0]\nclass = 0", fillcolor="#e58139"] ;
79 -> 85 ;
86 [label="Age <= 24.5\ngini = 0.441\nsamples = 149\nvalue = [100, 49]\nclass = 0", fillcolor="#f2bf9a"] ;
52 -> 86 ;
87 [label="SibSp <= 1.5\ngini = 0.229\nsamples = 38\nvalue = [33, 5]\nclass = 0", fillcolor="#e99457"] ;
86 -> 87 ;
88 [label="Parch <= 0.5\ngini = 0.34\nsamples = 23\nvalue = [18, 5]\nclass = 0", fillcolor="#eca470"] ;
87 -> 88 ;
89 [label="Age <= 20.0\ngini = 0.124\nsamples = 15\nvalue = [14, 1]\nclass = 0", fillcolor="#e78a47"] ;
88 -> 89 ;
90 [label="gini = 0.0\nsamples = 8\nvalue = [8, 0]\nclass = 0", fillcolor="#e58139"] ;
89 -> 90 ;
91 [label="gini = 0.245\nsamples = 7\nvalue = [6, 1]\nclass = 0", fillcolor="#e9965a"] ;
89 -> 91 ;
92 [label="gini = 0.5\nsamples = 8\nvalue = [4, 4]\nclass = 0", fillcolor="#ffffff"] ;
88 -> 92 ;
93 [label="gini = 0.0\nsamples = 15\nvalue = [15, 0]\nclass = 0", fillcolor="#e58139"] ;
87 -> 93 ;
94 [label="Age <= 38.5\ngini = 0.479\nsamples = 111\nvalue = [67, 44]\nclass = 0", fillcolor="#f6d4bb"] ;
86 -> 94 ;
95 [label="Pclass_2 <= 0.5\ngini = 0.497\nsamples = 54\nvalue = [25, 29]\nclass = 1", fillcolor="#e4f1fb"] ;
94 -> 95 ;
96 [label="Fare <= 27.15\ngini = 0.473\nsamples = 47\nvalue = [18, 29]\nclass = 1", fillcolor="#b4daf5"] ;
95 -> 96 ;
97 [label="gini = 0.0\nsamples = 7\nvalue = [0, 7]\nclass = 1", fillcolor="#399de5"] ;
96 -> 97 ;
98 [label="Age <= 27.5\ngini = 0.495\nsamples = 40\nvalue = [18, 22]\nclass = 1", fillcolor="#dbedfa"] ;
96 -> 98 ;
99 [label="gini = 0.346\nsamples = 9\nvalue = [2, 7]\nclass = 1", fillcolor="#72b9ec"] ;
98 -> 99 ;
100 [label="Age <= 31.5\ngini = 0.499\nsamples = 31\nvalue = [16, 15]\nclass = 0", fillcolor="#fdf7f3"] ;
98 -> 100 ;
101 [label="gini = 0.426\nsamples = 13\nvalue = [9, 4]\nclass = 0", fillcolor="#f1b991"] ;
100 -> 101 ;
102 [label="gini = 0.475\nsamples = 18\nvalue = [7, 11]\nclass = 1", fillcolor="#b7dbf6"] ;
100 -> 102 ;
103 [label="gini = 0.0\nsamples = 7\nvalue = [7, 0]\nclass = 0", fillcolor="#e58139"] ;
95 -> 103 ;
104 [label="Age <= 53.0\ngini = 0.388\nsamples = 57\nvalue = [42, 15]\nclass = 0", fillcolor="#eeae80"] ;
94 -> 104 ;
105 [label="Age <= 47.5\ngini = 0.451\nsamples = 35\nvalue = [23, 12]\nclass = 0", fillcolor="#f3c3a0"] ;
104 -> 105 ;
106 [label="Fare <= 31.137\ngini = 0.298\nsamples = 22\nvalue = [18, 4]\nclass = 0", fillcolor="#eb9d65"] ;
105 -> 106 ;
107 [label="gini = 0.42\nsamples = 10\nvalue = [7, 3]\nclass = 0", fillcolor="#f0b78e"] ;
106 -> 107 ;
108 [label="gini = 0.153\nsamples = 12\nvalue = [11, 1]\nclass = 0", fillcolor="#e78c4b"] ;
106 -> 108 ;
109 [label="gini = 0.473\nsamples = 13\nvalue = [5, 8]\nclass = 1", fillcolor="#b5daf5"] ;
105 -> 109 ;
110 [label="Embarked_S <= 0.5\ngini = 0.236\nsamples = 22\nvalue = [19, 3]\nclass = 0", fillcolor="#e99558"] ;
104 -> 110 ;
111 [label="gini = 0.375\nsamples = 8\nvalue = [6, 2]\nclass = 0", fillcolor="#eeab7b"] ;
110 -> 111 ;
112 [label="Fare <= 31.41\ngini = 0.133\nsamples = 14\nvalue = [13, 1]\nclass = 0", fillcolor="#e78b48"] ;
110 -> 112 ;
113 [label="gini = 0.245\nsamples = 7\nvalue = [6, 1]\nclass = 0", fillcolor="#e9965a"] ;
112 -> 113 ;
114 [label="gini = 0.0\nsamples = 7\nvalue = [7, 0]\nclass = 0", fillcolor="#e58139"] ;
112 -> 114 ;
}