digraph Tree {
node [shape=box, style="filled", color="black"] ;
0 [label="Sex_male <= 0.5\ngini = 0.473\nsamples = 891\nvalue = [549, 342]\nclass = 0", fillcolor="#f5cfb4"] ;
1 [label="Pclass_3 <= 0.5\ngini = 0.383\nsamples = 314\nvalue = [81, 233]\nclass = 1", fillcolor="#7ebfee"] ;
0 -> 1 [labeldistance=2.5, labelangle=45, headlabel="True"] ;
2 [label="Fare <= 28.856\ngini = 0.1\nsamples = 170\nvalue = [9, 161]\nclass = 1", fillcolor="#44a2e6"] ;
1 -> 2 ;
3 [label="Age <= 37.0\ngini = 0.18\nsamples = 70\nvalue = [7, 63]\nclass = 1", fillcolor="#4fa8e8"] ;
2 -> 3 ;
4 [label="Age <= 27.5\ngini = 0.113\nsamples = 50\nvalue = [3, 47]\nclass = 1", fillcolor="#46a3e7"] ;
3 -> 4 ;
5 [label="Age <= 23.5\ngini = 0.204\nsamples = 26\nvalue = [3, 23]\nclass = 1", fillcolor="#53aae8"] ;
4 -> 5 ;
6 [label="gini = 0.0\nsamples = 15\nvalue = [0, 15]\nclass = 1", fillcolor="#399de5"] ;
5 -> 6 ;
7 [label="gini = 0.397\nsamples = 11\nvalue = [3, 8]\nclass = 1", fillcolor="#83c2ef"] ;
5 -> 7 ;
8 [label="gini = 0.0\nsamples = 24\nvalue = [0, 24]\nclass = 1", fillcolor="#399de5"] ;
4 -> 8 ;
9 [label="Fare <= 13.25\ngini = 0.32\nsamples = 20\nvalue = [4, 16]\nclass = 1", fillcolor="#6ab6ec"] ;
3 -> 9 ;
10 [label="gini = 0.444\nsamples = 6\nvalue = [2, 4]\nclass = 1", fillcolor="#9ccef2"] ;
9 -> 10 ;
11 [label="Fare <= 25.965\ngini = 0.245\nsamples = 14\nvalue = [2, 12]\nclass = 1", fillcolor="#5aade9"] ;
9 -> 11 ;
12 [label="gini = 0.0\nsamples = 7\nvalue = [0, 7]\nclass = 1", fillcolor="#399de5"] ;
11 -> 12 ;
13 [label="gini = 0.408\nsamples = 7\nvalue = [2, 5]\nclass = 1", fillcolor="#88c4ef"] ;
11 -> 13 ;
14 [label="Parch <= 1.5\ngini = 0.039\nsamples = 100\nvalue = [2, 98]\nclass = 1", fillcolor="#3d9fe6"] ;
2 -> 14 ;
15 [label="gini = 0.0\nsamples = 84\nvalue = [0, 84]\nclass = 1", fillcolor="#399de5"] ;
14 -> 15 ;
16 [label="Fare <= 135.775\ngini = 0.219\nsamples = 16\nvalue = [2, 14]\nclass = 1", fillcolor="#55abe9"] ;
14 -> 16 ;
17 [label="gini = 0.0\nsamples = 9\nvalue = [0, 9]\nclass = 1", fillcolor="#399de5"] ;
16 -> 17 ;
18 [label="gini = 0.408\nsamples = 7\nvalue = [2, 5]\nclass = 1", fillcolor="#88c4ef"] ;
16 -> 18 ;
19 [label="Fare <= 23.35\ngini = 0.5\nsamples = 144\nvalue = [72, 72]\nclass = 0", fillcolor="#ffffff"] ;
1 -> 19 ;
20 [label="Embarked_S <= 0.5\ngini = 0.484\nsamples = 117\nvalue = [48, 69]\nclass = 1", fillcolor="#c3e1f7"] ;
19 -> 20 ;
21 [label="Fare <= 15.621\ngini = 0.417\nsamples = 54\nvalue = [16, 38]\nclass = 1", fillcolor="#8cc6f0"] ;
20 -> 21 ;
22 [label="Fare <= 13.935\ngini = 0.454\nsamples = 46\nvalue = [16, 30]\nclass = 1", fillcolor="#a3d1f3"] ;
21 -> 22 ;
23 [label="Age <= 16.5\ngini = 0.342\nsamples = 32\nvalue = [7, 25]\nclass = 1", fillcolor="#70b8ec"] ;
22 -> 23 ;
24 [label="gini = 0.0\nsamples = 8\nvalue = [0, 8]\nclass = 1", fillcolor="#399de5"] ;
23 -> 24 ;
25 [label="Age <= 30.75\ngini = 0.413\nsamples = 24\nvalue = [7, 17]\nclass = 1", fillcolor="#8bc5f0"] ;
23 -> 25 ;
26 [label="gini = 0.497\nsamples = 13\nvalue = [6, 7]\nclass = 1", fillcolor="#e3f1fb"] ;
25 -> 26 ;
27 [label="gini = 0.165\nsamples = 11\nvalue = [1, 10]\nclass = 1", fillcolor="#4da7e8"] ;
25 -> 27 ;
28 [label="Fare <= 14.852\ngini = 0.459\nsamples = 14\nvalue = [9, 5]\nclass = 0", fillcolor="#f3c7a7"] ;
22 -> 28 ;
29 [label="gini = 0.245\nsamples = 7\nvalue = [6, 1]\nclass = 0", fillcolor="#e9965a"] ;
28 -> 29 ;
30 [label="gini = 0.49\nsamples = 7\nvalue = [3, 4]\nclass = 1", fillcolor="#cee6f8"] ;
28 -> 30 ;
31 [label="gini = 0.0\nsamples = 8\nvalue = [0, 8]\nclass = 1", fillcolor="#399de5"] ;
21 -> 31 ;
32 [label="Age <= 36.5\ngini = 0.5\nsamples = 63\nvalue = [32, 31]\nclass = 0", fillcolor="#fefbf9"] ;
20 -> 32 ;
33 [label="Fare <= 10.825\ngini = 0.497\nsamples = 56\nvalue = [26, 30]\nclass = 1", fillcolor="#e5f2fc"] ;
32 -> 33 ;
34 [label="Fare <= 7.763\ngini = 0.492\nsamples = 32\nvalue = [18, 14]\nclass = 0", fillcolor="#f9e3d3"] ;
33 -> 34 ;
35 [label="gini = 0.278\nsamples = 6\nvalue = [1, 5]\nclass = 1", fillcolor="#61b1ea"] ;
34 -> 35 ;
36 [label="Age <= 19.5\ngini = 0.453\nsamples = 26\nvalue = [17, 9]\nclass = 0", fillcolor="#f3c4a2"] ;
34 -> 36 ;
37 [label="gini = 0.49\nsamples = 7\nvalue = [3, 4]\nclass = 1", fillcolor="#cee6f8"] ;
36 -> 37 ;
38 [label="gini = 0.388\nsamples = 19\nvalue = [14, 5]\nclass = 0", fillcolor="#eeae80"] ;
36 -> 38 ;
39 [label="Fare <= 17.6\ngini = 0.444\nsamples = 24\nvalue = [8, 16]\nclass = 1", fillcolor="#9ccef2"] ;
33 -> 39 ;
40 [label="Age <= 25.0\ngini = 0.231\nsamples = 15\nvalue = [2, 13]\nclass = 1", fillcolor="#57ace9"] ;
39 -> 40 ;
41 [label="gini = 0.0\nsamples = 7\nvalue = [0, 7]\nclass = 1", fillcolor="#399de5"] ;
40 -> 41 ;
42 [label="gini = 0.375\nsamples = 8\nvalue = [2, 6]\nclass = 1", fillcolor="#7bbeee"] ;
40 -> 42 ;
43 [label="gini = 0.444\nsamples = 9\nvalue = [6, 3]\nclass = 0", fillcolor="#f2c09c"] ;
39 -> 43 ;
44 [label="gini = 0.245\nsamples = 7\nvalue = [6, 1]\nclass = 0", fillcolor="#e9965a"] ;
32 -> 44 ;
45 [label="Age <= 38.5\ngini = 0.198\nsamples = 27\nvalue = [24, 3]\nclass = 0", fillcolor="#e89152"] ;
19 -> 45 ;
46 [label="Age <= 25.0\ngini = 0.278\nsamples = 18\nvalue = [15, 3]\nclass = 0", fillcolor="#ea9a61"] ;
45 -> 46 ;
47 [label="gini = 0.153\nsamples = 12\nvalue = [11, 1]\nclass = 0", fillcolor="#e78c4b"] ;
46 -> 47 ;
48 [label="gini = 0.444\nsamples = 6\nvalue = [4, 2]\nclass = 0", fillcolor="#f2c09c"] ;
46 -> 48 ;
49 [label="gini = 0.0\nsamples = 9\nvalue = [9, 0]\nclass = 0", fillcolor="#e58139"] ;
45 -> 49 ;
50 [label="Age <= 6.5\ngini = 0.306\nsamples = 577\nvalue = [468, 109]\nclass = 0", fillcolor="#eb9e67"] ;
0 -> 50 [labeldistance=2.5, labelangle=-45, headlabel="False"] ;
51 [label="SibSp <= 2.5\ngini = 0.444\nsamples = 24\nvalue = [8, 16]\nclass = 1", fillcolor="#9ccef2"] ;
50 -> 51 ;
52 [label="gini = 0.0\nsamples = 15\nvalue = [0, 15]\nclass = 1", fillcolor="#399de5"] ;
51 -> 52 ;
53 [label="gini = 0.198\nsamples = 9\nvalue = [8, 1]\nclass = 0", fillcolor="#e89152"] ;
51 -> 53 ;
54 [label="Fare <= 26.269\ngini = 0.28\nsamples = 553\nvalue = [460, 93]\nclass = 0", fillcolor="#ea9a61"] ;
50 -> 54 ;
55 [label="Age <= 15.5\ngini = 0.194\nsamples = 404\nvalue = [360, 44]\nclass = 0", fillcolor="#e89051"] ;
54 -> 55 ;
56 [label="gini = 0.5\nsamples = 8\nvalue = [4, 4]\nclass = 0", fillcolor="#ffffff"] ;
55 -> 56 ;
57 [label="Age <= 45.25\ngini = 0.182\nsamples = 396\nvalue = [356, 40]\nclass = 0", fillcolor="#e88f4f"] ;
55 -> 57 ;
58 [label="Age <= 43.5\ngini = 0.191\nsamples = 364\nvalue = [325, 39]\nclass = 0", fillcolor="#e89051"] ;
57 -> 58 ;
59 [label="Embarked_S <= 0.5\ngini = 0.186\nsamples = 357\nvalue = [320, 37]\nclass = 0", fillcolor="#e89050"] ;
58 -> 59 ;
60 [label="Fare <= 15.148\ngini = 0.25\nsamples = 75\nvalue = [64, 11]\nclass = 0", fillcolor="#e9975b"] ;
59 -> 60 ;
61 [label="gini = 0.175\nsamples = 62\nvalue = [56, 6]\nclass = 0", fillcolor="#e88e4e"] ;
60 -> 61 ;
62 [label="gini = 0.473\nsamples = 13\nvalue = [8, 5]\nclass = 0", fillcolor="#f5d0b5"] ;
60 -> 62 ;
63 [label="Fare <= 13.25\ngini = 0.167\nsamples = 282\nvalue = [256, 26]\nclass = 0", fillcolor="#e88e4d"] ;
59 -> 63 ;
64 [label="gini = 0.189\nsamples = 237\nvalue = [212, 25]\nclass = 0", fillcolor="#e89050"] ;
63 -> 64 ;
65 [label="gini = 0.043\nsamples = 45\nvalue = [44, 1]\nclass = 0", fillcolor="#e6843d"] ;
63 -> 65 ;
66 [label="gini = 0.408\nsamples = 7\nvalue = [5, 2]\nclass = 0", fillcolor="#efb388"] ;
58 -> 66 ;
67 [label="Age <= 61.5\ngini = 0.061\nsamples = 32\nvalue = [31, 1]\nclass = 0", fillcolor="#e6853f"] ;
57 -> 67 ;
68 [label="gini = 0.0\nsamples = 25\nvalue = [25, 0]\nclass = 0", fillcolor="#e58139"] ;
67 -> 68 ;
69 [label="gini = 0.245\nsamples = 7\nvalue = [6, 1]\nclass = 0", fillcolor="#e9965a"] ;
67 -> 69 ;
70 [label="SibSp <= 2.5\ngini = 0.441\nsamples = 149\nvalue = [100, 49]\nclass = 0", fillcolor="#f2bf9a"] ;
54 -> 70 ;
71 [label="Pclass_2 <= 0.5\ngini = 0.464\nsamples = 134\nvalue = [85, 49]\nclass = 0", fillcolor="#f4caab"] ;
70 -> 71 ;
72 [label="Age <= 53.0\ngini = 0.481\nsamples = 119\nvalue = [71, 48]\nclass = 0", fillcolor="#f7d6bf"] ;
71 -> 72 ;
73 [label="Fare <= 27.135\ngini = 0.497\nsamples = 98\nvalue = [53, 45]\nclass = 0", fillcolor="#fbece1"] ;
72 -> 73 ;
74 [label="Age <= 38.0\ngini = 0.26\nsamples = 13\nvalue = [2, 11]\nclass = 1", fillcolor="#5dafea"] ;
73 -> 74 ;
75 [label="gini = 0.245\nsamples = 7\nvalue = [1, 6]\nclass = 1", fillcolor="#5aade9"] ;
74 -> 75 ;
76 [label="gini = 0.278\nsamples = 6\nvalue = [1, 5]\nclass = 1", fillcolor="#61b1ea"] ;
74 -> 76 ;
77 [label="Fare <= 29.1\ngini = 0.48\nsamples = 85\nvalue = [51, 34]\nclass = 0", fillcolor="#f6d5bd"] ;
73 -> 77 ;
78 [label="gini = 0.0\nsamples = 6\nvalue = [6, 0]\nclass = 0", fillcolor="#e58139"] ;
77 -> 78 ;
79 [label="gini = 0.49\nsamples = 79\nvalue = [45, 34]\nclass = 0", fillcolor="#f9e0cf"] ;
77 -> 79 ;
80 [label="Fare <= 29.85\ngini = 0.245\nsamples = 21\nvalue = [18, 3]\nclass = 0", fillcolor="#e9965a"] ;
72 -> 80 ;
81 [label="gini = 0.0\nsamples = 6\nvalue = [6, 0]\nclass = 0", fillcolor="#e58139"] ;
80 -> 81 ;
82 [label="Fare <= 42.502\ngini = 0.32\nsamples = 15\nvalue = [12, 3]\nclass = 0", fillcolor="#eca06a"] ;
80 -> 82 ;
83 [label="gini = 0.408\nsamples = 7\nvalue = [5, 2]\nclass = 0", fillcolor="#efb388"] ;
82 -> 83 ;
84 [label="gini = 0.219\nsamples = 8\nvalue = [7, 1]\nclass = 0", fillcolor="#e99355"] ;
82 -> 84 ;
85 [label="Age <= 24.5\ngini = 0.124\nsamples = 15\nvalue = [14, 1]\nclass = 0", fillcolor="#e78a47"] ;
71 -> 85 ;
86 [label="gini = 0.278\nsamples = 6\nvalue = [5, 1]\nclass = 0", fillcolor="#ea9a61"] ;
85 -> 86 ;
87 [label="gini = 0.0\nsamples = 9\nvalue = [9, 0]\nclass = 0", fillcolor="#e58139"] ;
85 -> 87 ;
88 [label="gini = 0.0\nsamples = 15\nvalue = [15, 0]\nclass = 0", fillcolor="#e58139"] ;
70 -> 88 ;
}